{"sizes":[35,17,1],"layers":[{"distance_0":{},"scale_0":{},"straight_0":{},"curve_0":{},"scan_0":{},"terminal_0":{},"bearing_0":{},"distance_1":{},"scale_1":{},"straight_1":{},"curve_1":{},"scan_1":{},"terminal_1":{},"bearing_1":{},"distance_2":{},"scale_2":{},"straight_2":{},"curve_2":{},"scan_2":{},"terminal_2":{},"bearing_2":{},"distance_3":{},"scale_3":{},"straight_3":{},"curve_3":{},"scan_3":{},"terminal_3":{},"bearing_3":{},"distance_4":{},"scale_4":{},"straight_4":{},"curve_4":{},"scan_4":{},"terminal_4":{},"bearing_4":{}},{"0":{"bias":10.654808044433594,"weights":{"distance_0":-5.2737836837768555,"scale_0":0.15625667572021484,"straight_0":4.02732515335083,"curve_0":-2.634652614593506,"scan_0":-4.785482406616211,"terminal_0":-0.22554391622543335,"bearing_0":-7.0920891761779785,"distance_1":0.8630256652832031,"scale_1":0.028496354818344116,"straight_1":4.135848045349121,"curve_1":-3.8229405879974365,"scan_1":5.870483875274658,"terminal_1":2.052196502685547,"bearing_1":10.491277694702148,"distance_2":-3.076021432876587,"scale_2":0.04735679179430008,"straight_2":-1.948622226715088,"curve_2":-1.663529872894287,"scan_2":-3.352985382080078,"terminal_2":-0.16975554823875427,"bearing_2":6.218719959259033,"distance_3":-0.9247734546661377,"scale_3":-0.04070206359028816,"straight_3":0.9795641303062439,"curve_3":-2.663141965866089,"scan_3":-2.9560701847076416,"terminal_3":-2.2259557247161865,"bearing_3":0.7001703381538391,"distance_4":-2.1087710857391357,"scale_4":-0.29084035754203796,"straight_4":-1.4386621713638306,"curve_4":0.6267020106315613,"scan_4":-4.535634517669678,"terminal_4":-3.8816587924957275,"bearing_4":-2.471040964126587}},"1":{"bias":-19.24310874938965,"weights":{"distance_0":8.251943588256836,"scale_0":-0.19216912984848022,"straight_0":-2.449270486831665,"curve_0":0.9692084789276123,"scan_0":13.18887710571289,"terminal_0":3.1534361839294434,"bearing_0":7.808324337005615,"distance_1":0.4605500400066376,"scale_1":-0.2829706072807312,"straight_1":0.8719379901885986,"curve_1":-0.9994726181030273,"scan_1":1.7389923334121704,"terminal_1":3.168353796005249,"bearing_1":-0.8855516314506531,"distance_2":-1.189922571182251,"scale_2":-0.23524639010429382,"straight_2":-2.5974538326263428,"curve_2":-2.7492733001708984,"scan_2":2.7823123931884766,"terminal_2":2.9803571701049805,"bearing_2":-7.23396635055542,"distance_3":0.2115936428308487,"scale_3":-0.2687937319278717,"straight_3":-1.094118356704712,"curve_3":-3.3945815563201904,"scan_3":2.373504161834717,"terminal_3":4.005021095275879,"bearing_3":0.5581567883491516,"distance_4":-1.5231040716171265,"scale_4":0.28477832674980164,"straight_4":2.494570732116699,"curve_4":-2.6111931800842285,"scan_4":2.408303737640381,"terminal_4":0.24473178386688232,"bearing_4":-1.2885675430297852}},"2":{"bias":-15.358087539672852,"weights":{"distance_0":9.187307357788086,"scale_0":-0.28572145104408264,"straight_0":1.663403034210205,"curve_0":1.9456827640533447,"scan_0":9.755621910095215,"terminal_0":2.035676956176758,"bearing_0":13.405447959899902,"distance_1":2.777714490890503,"scale_1":-0.3738133907318115,"straight_1":2.003175735473633,"curve_1":-3.0183253288269043,"scan_1":-1.2469689846038818,"terminal_1":2.0576586723327637,"bearing_1":-0.3159773051738739,"distance_2":4.655961990356445,"scale_2":-0.4017702639102936,"straight_2":4.286219596862793,"curve_2":-1.9328323602676392,"scan_2":-1.232725739479065,"terminal_2":2.3886878490448,"bearing_2":-4.7612152099609375,"distance_3":-0.6455512642860413,"scale_3":-0.30136194825172424,"straight_3":-5.637510776519775,"curve_3":-0.5479309558868408,"scan_3":-2.796229362487793,"terminal_3":0.3673180639743805,"bearing_3":-10.629416465759277,"distance_4":-1.1150470972061157,"scale_4":-0.10592781752347946,"straight_4":-0.8862064480781555,"curve_4":-3.833738327026367,"scan_4":-7.442777633666992,"terminal_4":-5.933203220367432,"bearing_4":0.038735102862119675}},"3":{"bias":9.653352737426758,"weights":{"distance_0":-3.771345853805542,"scale_0":-0.04489218816161156,"straight_0":-0.720495343208313,"curve_0":1.2322726249694824,"scan_0":-6.02598762512207,"terminal_0":-0.6933428645133972,"bearing_0":-2.561366081237793,"distance_1":-0.6164518594741821,"scale_1":0.08230756968259811,"straight_1":-0.7034209966659546,"curve_1":1.6194078922271729,"scan_1":2.0187880992889404,"terminal_1":1.249560832977295,"bearing_1":1.1467994451522827,"distance_2":-5.323920726776123,"scale_2":-0.06312616914510727,"straight_2":-4.545108318328857,"curve_2":3.9277284145355225,"scan_2":-2.8612451553344727,"terminal_2":-2.3483612537384033,"bearing_2":-4.517178535461426,"distance_3":1.7926510572433472,"scale_3":0.060084566473960876,"straight_3":4.476073741912842,"curve_3":-0.24978087842464447,"scan_3":0.9652158617973328,"terminal_3":-0.35408109426498413,"bearing_3":-2.001859426498413,"distance_4":4.152239799499512,"scale_4":0.25131312012672424,"straight_4":2.968977451324463,"curve_4":-3.5939340591430664,"scan_4":-2.175503730773926,"terminal_4":0.8422044515609741,"bearing_4":-0.44989511370658875}},"4":{"bias":16.253564834594727,"weights":{"distance_0":-8.553736686706543,"scale_0":-0.048328105360269547,"straight_0":1.6208388805389404,"curve_0":-0.7432874441146851,"scan_0":-14.25271224975586,"terminal_0":-1.5245335102081299,"bearing_0":4.983911514282227,"distance_1":-1.2427079677581787,"scale_1":0.22178752720355988,"straight_1":-1.2096060514450073,"curve_1":3.890404462814331,"scan_1":0.05413789674639702,"terminal_1":2.3175463676452637,"bearing_1":-4.6814470291137695,"distance_2":1.271388053894043,"scale_2":-0.0023205075412988663,"straight_2":0.10738412290811539,"curve_2":1.202338695526123,"scan_2":-1.2350631952285767,"terminal_2":-0.01779519021511078,"bearing_2":-4.046361923217773,"distance_3":-1.6732107400894165,"scale_3":0.22997654974460602,"straight_3":0.8946317434310913,"curve_3":1.6356964111328125,"scan_3":-1.5613071918487549,"terminal_3":-0.6301916837692261,"bearing_3":-0.038171615451574326,"distance_4":1.0382710695266724,"scale_4":0.0239713117480278,"straight_4":0.607716977596283,"curve_4":-1.7019996643066406,"scan_4":-0.48754826188087463,"terminal_4":0.6955585479736328,"bearing_4":-2.81335186958313}},"5":{"bias":19.737817764282227,"weights":{"distance_0":-6.029700756072998,"scale_0":0.02916734665632248,"straight_0":8.560383796691895,"curve_0":-2.710430860519409,"scan_0":-19.707853317260742,"terminal_0":-7.150648593902588,"bearing_0":-3.743760585784912,"distance_1":2.332930326461792,"scale_1":0.09849914908409119,"straight_1":4.450944423675537,"curve_1":3.447352886199951,"scan_1":1.0499664545059204,"terminal_1":-3.8150076866149902,"bearing_1":-6.91535758972168,"distance_2":-0.00243494869209826,"scale_2":-0.01155516691505909,"straight_2":0.9217659831047058,"curve_2":3.031029224395752,"scan_2":-0.47437548637390137,"terminal_2":-0.03531813248991966,"bearing_2":0.21631133556365967,"distance_3":0.24831508100032806,"scale_3":0.316923052072525,"straight_3":4.4745612144470215,"curve_3":1.8054730892181396,"scan_3":-0.32045885920524597,"terminal_3":1.7774507999420166,"bearing_3":-3.0729293823242188,"distance_4":-3.5884652137756348,"scale_4":0.16693352162837982,"straight_4":-6.0231122970581055,"curve_4":6.244856357574463,"scan_4":-0.2522968351840973,"terminal_4":-3.649946689605713,"bearing_4":-0.2156863808631897}},"6":{"bias":12.63586711883545,"weights":{"distance_0":-5.471111297607422,"scale_0":0.23869171738624573,"straight_0":4.1878461837768555,"curve_0":-1.8683204650878906,"scan_0":-9.650993347167969,"terminal_0":0.6494702100753784,"bearing_0":-2.862337350845337,"distance_1":-0.5290247201919556,"scale_1":0.20036867260932922,"straight_1":-0.6405080556869507,"curve_1":1.719667911529541,"scan_1":1.8523660898208618,"terminal_1":2.0965957641601562,"bearing_1":-1.80104660987854,"distance_2":1.0361164808273315,"scale_2":0.04367641359567642,"straight_2":0.4028834104537964,"curve_2":1.5746020078659058,"scan_2":-0.8828330636024475,"terminal_2":-1.6528103351593018,"bearing_2":-0.9314168691635132,"distance_3":-3.3807945251464844,"scale_3":-0.13396698236465454,"straight_3":-1.153351068496704,"curve_3":-1.7203086614608765,"scan_3":0.9429038166999817,"terminal_3":-0.021296091377735138,"bearing_3":1.4552390575408936,"distance_4":4.220030307769775,"scale_4":-0.06603638082742691,"straight_4":0.6509942412376404,"curve_4":-1.731520652770996,"scan_4":-3.077302932739258,"terminal_4":-2.0566046237945557,"bearing_4":-0.6162313222885132}},"7":{"bias":20.19385528564453,"weights":{"distance_0":-15.007790565490723,"scale_0":0.26860639452934265,"straight_0":2.036139726638794,"curve_0":-5.338533878326416,"scan_0":-6.6996684074401855,"terminal_0":1.636144995689392,"bearing_0":-0.8185803890228271,"distance_1":0.832276463508606,"scale_1":0.2628750205039978,"straight_1":0.3969458043575287,"curve_1":-1.4731507301330566,"scan_1":-2.246849536895752,"terminal_1":-3.1319475173950195,"bearing_1":4.740230560302734,"distance_2":0.6154060363769531,"scale_2":0.31674662232398987,"straight_2":3.3117260932922363,"curve_2":-3.2770237922668457,"scan_2":-3.1593549251556396,"terminal_2":2.1604135036468506,"bearing_2":-1.8025928735733032,"distance_3":-0.7158182859420776,"scale_3":0.2415546327829361,"straight_3":0.06888000667095184,"curve_3":1.8892061710357666,"scan_3":-4.612534523010254,"terminal_3":2.960144519805908,"bearing_3":-0.730450451374054,"distance_4":-2.0042107105255127,"scale_4":0.1178748831152916,"straight_4":0.9257983565330505,"curve_4":1.8517100811004639,"scan_4":-1.5806211233139038,"terminal_4":1.8566782474517822,"bearing_4":-1.5501019954681396}},"8":{"bias":16.011260986328125,"weights":{"distance_0":-9.477177619934082,"scale_0":-0.015657704323530197,"straight_0":4.389458656311035,"curve_0":-3.0499842166900635,"scan_0":-9.413481712341309,"terminal_0":-1.8300052881240845,"bearing_0":2.8439786434173584,"distance_1":-2.2069458961486816,"scale_1":-0.04977182671427727,"straight_1":0.28429391980171204,"curve_1":-3.615176200866699,"scan_1":-3.0977582931518555,"terminal_1":1.247079610824585,"bearing_1":8.872220993041992,"distance_2":-0.7267959713935852,"scale_2":-0.10277555882930756,"straight_2":1.3575446605682373,"curve_2":-4.434599876403809,"scan_2":3.0438544750213623,"terminal_2":5.132152080535889,"bearing_2":5.174840450286865,"distance_3":-0.8180188536643982,"scale_3":-0.02769090235233307,"straight_3":-0.47820112109184265,"curve_3":3.4156696796417236,"scan_3":1.424704670906067,"terminal_3":0.5915356874465942,"bearing_3":-5.400853157043457,"distance_4":-0.25980809330940247,"scale_4":-0.10733263939619064,"straight_4":-0.9530190825462341,"curve_4":-2.92988657951355,"scan_4":-2.232224464416504,"terminal_4":-1.943473219871521,"bearing_4":-6.841097354888916}},"9":{"bias":11.06243896484375,"weights":{"distance_0":-2.6634016036987305,"scale_0":0.27541956305503845,"straight_0":3.542184352874756,"curve_0":1.1990270614624023,"scan_0":-14.85367488861084,"terminal_0":-7.684682369232178,"bearing_0":-9.836318969726562,"distance_1":0.7260164618492126,"scale_1":0.2913261651992798,"straight_1":0.21271081268787384,"curve_1":4.724925518035889,"scan_1":-4.103180408477783,"terminal_1":-4.790255069732666,"bearing_1":-3.766237735748291,"distance_2":-1.5531792640686035,"scale_2":0.1688668429851532,"straight_2":0.3903370797634125,"curve_2":3.077491044998169,"scan_2":-1.7361979484558105,"terminal_2":-2.898926019668579,"bearing_2":1.6168334484100342,"distance_3":-6.581395149230957,"scale_3":0.04616982862353325,"straight_3":1.6383408308029175,"curve_3":-3.1469430923461914,"scan_3":3.5080339908599854,"terminal_3":1.3509513139724731,"bearing_3":4.640654563903809,"distance_4":6.244152545928955,"scale_4":-0.0048057506792247295,"straight_4":4.420989990234375,"curve_4":1.7592960596084595,"scan_4":3.1574196815490723,"terminal_4":3.9823200702667236,"bearing_4":3.1980319023132324}},"10":{"bias":-9.635952949523926,"weights":{"distance_0":2.0296647548675537,"scale_0":-0.20383793115615845,"straight_0":-3.809995651245117,"curve_0":0.01568596623837948,"scan_0":6.250181674957275,"terminal_0":1.903968095779419,"bearing_0":2.3188204765319824,"distance_1":0.08437924087047577,"scale_1":-0.046555787324905396,"straight_1":-0.3041422367095947,"curve_1":-2.4201548099517822,"scan_1":0.31801509857177734,"terminal_1":0.609131395816803,"bearing_1":6.18058967590332,"distance_2":-1.5994585752487183,"scale_2":0.0674768015742302,"straight_2":-3.831348180770874,"curve_2":0.2156226485967636,"scan_2":3.7451117038726807,"terminal_2":2.606553077697754,"bearing_2":4.9043354988098145,"distance_3":2.347710609436035,"scale_3":-0.29377320408821106,"straight_3":-0.04131323844194412,"curve_3":-0.9275931715965271,"scan_3":-3.265444755554199,"terminal_3":-2.436305046081543,"bearing_3":-3.895256757736206,"distance_4":-1.9862021207809448,"scale_4":0.1380782574415207,"straight_4":-1.7317070960998535,"curve_4":2.3550853729248047,"scan_4":-2.453124523162842,"terminal_4":-2.189260244369507,"bearing_4":1.464221715927124}},"11":{"bias":12.145480155944824,"weights":{"distance_0":-4.712985992431641,"scale_0":0.327621191740036,"straight_0":1.5590344667434692,"curve_0":0.69497150182724,"scan_0":-14.741880416870117,"terminal_0":-4.7401227951049805,"bearing_0":-5.382319450378418,"distance_1":-0.0976882204413414,"scale_1":0.1712522804737091,"straight_1":-1.3767873048782349,"curve_1":3.963719606399536,"scan_1":3.8621950149536133,"terminal_1":4.601659774780273,"bearing_1":4.619938373565674,"distance_2":-1.470534086227417,"scale_2":0.09321615844964981,"straight_2":1.2162327766418457,"curve_2":-1.925243854522705,"scan_2":2.8347012996673584,"terminal_2":4.681092262268066,"bearing_2":-0.7787497639656067,"distance_3":-0.5477643013000488,"scale_3":0.2921687066555023,"straight_3":0.8618690371513367,"curve_3":0.2569999098777771,"scan_3":-0.9973241686820984,"terminal_3":-0.8843929767608643,"bearing_3":3.126303195953369,"distance_4":2.804028272628784,"scale_4":0.05406634509563446,"straight_4":4.0903730392456055,"curve_4":-6.832258701324463,"scan_4":-0.9062598943710327,"terminal_4":-0.23978176712989807,"bearing_4":-1.0103380680084229}},"12":{"bias":-12.036700248718262,"weights":{"distance_0":11.81360149383545,"scale_0":-0.3117064833641052,"straight_0":6.7851643562316895,"curve_0":-1.9245439767837524,"scan_0":5.013635635375977,"terminal_0":2.6158487796783447,"bearing_0":4.977640151977539,"distance_1":-0.19027598202228546,"scale_1":-0.2932719588279724,"straight_1":1.1793087720870972,"curve_1":-3.633917808532715,"scan_1":-1.2579190731048584,"terminal_1":0.8605019450187683,"bearing_1":-0.20250505208969116,"distance_2":2.50514817237854,"scale_2":-0.16249997913837433,"straight_2":-1.64665687084198,"curve_2":-1.5496225357055664,"scan_2":-10.165485382080078,"terminal_2":-2.2124407291412354,"bearing_2":1.3039405345916748,"distance_3":3.3089187145233154,"scale_3":-0.195026695728302,"straight_3":3.5174856185913086,"curve_3":-1.3296431303024292,"scan_3":-3.492725372314453,"terminal_3":-1.035532832145691,"bearing_3":-8.262060165405273,"distance_4":2.3951916694641113,"scale_4":0.010254115797579288,"straight_4":5.127528190612793,"curve_4":-1.2613542079925537,"scan_4":2.74349308013916,"terminal_4":0.77898770570755,"bearing_4":-4.909964084625244}},"13":{"bias":-18.041784286499023,"weights":{"distance_0":11.986117362976074,"scale_0":-0.3828429579734802,"straight_0":0.3620217442512512,"curve_0":-0.05708197131752968,"scan_0":13.810517311096191,"terminal_0":3.6334781646728516,"bearing_0":7.7014288902282715,"distance_1":-1.4859960079193115,"scale_1":-0.4715062081813812,"straight_1":-2.4715912342071533,"curve_1":-3.9565670490264893,"scan_1":-1.7465561628341675,"terminal_1":2.857861042022705,"bearing_1":-0.29983261227607727,"distance_2":4.627782821655273,"scale_2":-0.4345766007900238,"straight_2":4.447288990020752,"curve_2":-3.3081130981445312,"scan_2":-1.1593796014785767,"terminal_2":1.8875504732131958,"bearing_2":2.2139036655426025,"distance_3":0.8469338417053223,"scale_3":-0.3820268511772156,"straight_3":-2.9245283603668213,"curve_3":-2.5477848052978516,"scan_3":-2.472529888153076,"terminal_3":2.139995574951172,"bearing_3":3.4871296882629395,"distance_4":-1.5174469947814941,"scale_4":-0.14913330972194672,"straight_4":-2.520026683807373,"curve_4":-4.339496612548828,"scan_4":-6.790702819824219,"terminal_4":-3.145195484161377,"bearing_4":-5.697997570037842}},"14":{"bias":10.946200370788574,"weights":{"distance_0":-1.5493013858795166,"scale_0":-0.053408507257699966,"straight_0":4.806632041931152,"curve_0":-0.06781714409589767,"scan_0":-10.18528938293457,"terminal_0":-1.9684066772460938,"bearing_0":-1.9333994388580322,"distance_1":1.1959590911865234,"scale_1":0.22145044803619385,"straight_1":1.7876633405685425,"curve_1":0.1876567304134369,"scan_1":2.4739980697631836,"terminal_1":2.028968334197998,"bearing_1":-1.6613147258758545,"distance_2":0.06934838742017746,"scale_2":0.022859511896967888,"straight_2":-0.7130894064903259,"curve_2":0.8262390494346619,"scan_2":-0.7936692237854004,"terminal_2":-0.7048054933547974,"bearing_2":0.7940624952316284,"distance_3":-1.0348005294799805,"scale_3":-0.11888532340526581,"straight_3":0.38674864172935486,"curve_3":-1.2852858304977417,"scan_3":3.5932254791259766,"terminal_3":0.33473047614097595,"bearing_3":-4.920970439910889,"distance_4":-0.3494790196418762,"scale_4":0.042660780251026154,"straight_4":-3.152634620666504,"curve_4":-2.208855152130127,"scan_4":-0.9529023766517639,"terminal_4":-0.8387234210968018,"bearing_4":0.40220150351524353}},"15":{"bias":12.905449867248535,"weights":{"distance_0":-3.6164681911468506,"scale_0":0.21939754486083984,"straight_0":5.156559467315674,"curve_0":-1.971106767654419,"scan_0":-5.174827575683594,"terminal_0":1.7641788721084595,"bearing_0":-7.494826793670654,"distance_1":-1.825096607208252,"scale_1":0.003885151818394661,"straight_1":-3.706677198410034,"curve_1":2.04634690284729,"scan_1":-0.7106528878211975,"terminal_1":-1.9221283197402954,"bearing_1":-1.3966636657714844,"distance_2":2.2219834327697754,"scale_2":0.18190814554691315,"straight_2":0.6433021426200867,"curve_2":0.5323615074157715,"scan_2":0.508189857006073,"terminal_2":-1.6975452899932861,"bearing_2":-4.692754745483398,"distance_3":0.4565720558166504,"scale_3":-0.054941512644290924,"straight_3":0.3974374234676361,"curve_3":-0.6556403636932373,"scan_3":0.9902175664901733,"terminal_3":-1.597880482673645,"bearing_3":1.3504717350006104,"distance_4":-1.524795413017273,"scale_4":-0.0718604251742363,"straight_4":-1.6822589635849,"curve_4":2.0016753673553467,"scan_4":-0.7352409958839417,"terminal_4":-2.9175469875335693,"bearing_4":3.3357207775115967}},"16":{"bias":-11.154667854309082,"weights":{"distance_0":7.732945442199707,"scale_0":-0.1787235587835312,"straight_0":1.471677303314209,"curve_0":0.5385195016860962,"scan_0":9.400040626525879,"terminal_0":2.650175094604492,"bearing_0":5.675671100616455,"distance_1":3.5060653686523438,"scale_1":0.04651835188269615,"straight_1":4.161136150360107,"curve_1":-1.1214063167572021,"scan_1":-5.058105945587158,"terminal_1":-5.326796531677246,"bearing_1":3.1524477005004883,"distance_2":-4.168981075286865,"scale_2":-0.3435659110546112,"straight_2":-6.626214981079102,"curve_2":-0.096147820353508,"scan_2":-0.6074027419090271,"terminal_2":-1.3783385753631592,"bearing_2":0.6266195178031921,"distance_3":-3.127493381500244,"scale_3":-0.0011246969224885106,"straight_3":-5.122586727142334,"curve_3":-2.7323222160339355,"scan_3":4.91627311706543,"terminal_3":1.2976200580596924,"bearing_3":7.894196033477783,"distance_4":-5.407954216003418,"scale_4":0.005073408596217632,"straight_4":-5.364075183868408,"curve_4":-1.0179938077926636,"scan_4":2.241980791091919,"terminal_4":-0.2755903899669647,"bearing_4":0.5187987089157104}}},{"match":{"bias":-3.4500629901885986,"weights":{"0":-10.18834114074707,"1":10.682554244995117,"2":11.921621322631836,"3":-9.266988754272461,"4":-10.623098373413086,"5":-10.71368408203125,"6":-8.702827453613281,"7":-10.71178913116455,"8":-8.40239429473877,"9":-10.009513854980469,"10":6.1086320877075195,"11":-8.680758476257324,"12":10.123970031738281,"13":12.284858703613281,"14":-7.775933742523193,"15":-10.293346405029297,"16":7.380444049835205}}}],"outputLookup":true,"inputLookup":true,"activation":"sigmoid","trainOpts":{"iterations":15000,"errorThresh":0.001,"log":true,"logPeriod":10,"learningRate":0.2,"momentum":0.1,"callbackPeriod":10,"beta1":0.9,"beta2":0.999,"epsilon":1e-8}}
